{"layers": [{"batch_input_shape": [null, 300], "class_name": "InputLayer"}, {"class_name": "Reshape", "target_shape": [300, 1]}, {"class_name": "Conv1D", "strides": 1, "kernel_size": 3, "padding": "valid", "activation": "relu", "weights": [[[-0.6014118790626526, -0.1863638013601303, 1.0532134771347046, 0.5555399060249329], [-0.2220025658607483, -0.8580324053764343, 0.30849364399909973, -0.5004674196243286], [-0.47283485531806946, -0.754618227481842, 0.003242343198508024, -0.3666267693042755]], [0.10851777344942093, 0.0783536285161972, 0.11959780007600784, 0.15117034316062927]]}, {"class_name": "MaxPooling1D", "pool_size": 2, "strides": 2}, {"class_name": "Conv1D", "strides": 1, "kernel_size": 3, "padding": "valid", "activation": "relu", "weights": [[[0.6661991477012634, -0.2590807378292084, 0.4352456331253052, -0.15943960845470428], [0.5590038299560547, 0.417113333940506, -0.2785830795764923, -0.029256155714392662], [-1.0190321207046509, 0.04608343914151192, 0.043698109686374664, 0.2062399834394455], [0.0583932101726532, -0.028232699260115623, -0.714361310005188, -0.07670444995164871], [0.017170019447803497, -0.24790306389331818, -0.7341208457946777, 0.44045528769493103], [0.2305469810962677, -0.4294963777065277, -0.5271841287612915, 0.4878528118133545], [-0.4713537395000458, -0.2526232898235321, 0.7218360304832458, -0.2844398617744446], [0.21968203783035278, -0.5387247204780579, -0.05251794308423996, -0.37849101424217224], [-0.13693876564502716, -0.28712746500968933, 0.3483216166496277, -0.23658950626850128], [-0.042320553213357925, -0.5083114504814148, 0.7141925096511841, 0.20071068406105042], [-0.6975044012069702, -0.03872896730899811, 0.26651903986930847, 0.3346056044101715], [0.047363121062517166, 0.1421169489622116, -0.32258808612823486, 0.339633047580719]], [0.13650286197662354, -0.06131092458963394, -0.016228042542934418, -0.05974089726805687]]}, {"class_name": "MaxPooling1D", "pool_size": 2, "strides": 2}, {"class_name": "Conv1D", "strides": 1, "kernel_size": 3, "padding": "valid", "activation": "relu", "weights": [[[0.27330008149147034, -0.4342113137245178, 0.0139236431568861, -0.29857611656188965, 0.44867271184921265, 0.23720912635326385, 0.6408955454826355, 0.33727124333381653], [0.2136080414056778, 0.0796360969543457, 0.0986790582537651, -0.3667513132095337, 0.3540101945400238, 0.38893646001815796, -0.15451058745384216, -0.04272007942199707], [0.3427335321903229, -0.45308536291122437, 0.5686720609664917, -0.09032095223665237, 0.6847579479217529, 0.07389387488365173, -0.38886547088623047, 0.056975122541189194], [0.4816494882106781, -0.08533291518688202, 0.5783690214157104, -0.039301395416259766, -0.08633122593164444, -0.24017974734306335, 0.4132730960845947, 0.2193506807088852], [0.5936458110809326, -0.3161061406135559, 0.4399670660495758, -0.3775801360607147, 0.25074487924575806, -0.16377407312393188, 0.1429179608821869, 0.44970598816871643], [-0.2805534303188324, 0.2163175791501999, -0.2480209916830063, 0.2649490535259247, -0.15902313590049744, -0.27641141414642334, -0.31128352880477905, -0.30654481053352356], [0.6004144549369812, -0.48063209652900696, 0.34400027990341187, -0.17012734711170197, 0.16900964081287384, 0.6061463952064514, -0.7013852596282959, 0.3657250702381134], [0.6130012273788452, -0.2710292339324951, 0.30385294556617737, -0.3965490162372589, 0.22417008876800537, -0.006284081377089024, 0.13921228051185608, -0.13346286118030548], [0.019653961062431335, -0.3807588219642639, 0.5923981666564941, -0.002063665771856904, 0.5655068159103394, -0.119701087474823, -0.12828810513019562, 0.4617019593715668], [-0.19927701354026794, -0.13748469948768616, 0.1978231817483902, -0.011222142726182938, -0.2273751199245453, -0.29777196049690247, -0.20330359041690826, -0.06783897429704666], [0.6109544634819031, -0.25558698177337646, 0.10669105499982834, -0.2616347670555115, 0.8567102551460266, 0.6885026097297668, 0.20998668670654297, 0.7112245559692383], [-0.1712629348039627, -0.0669221356511116, -0.14848588407039642, -0.14539863169193268, 0.4967260956764221, 0.3447636663913727, -0.09547621011734009, 0.5286670923233032]], [0.00044476756011135876, 0.3500908315181732, 0.0001598537783138454, -0.004890434443950653, -0.002197827212512493, 0.004540900234133005, 0.019092921167612076, -0.0010058283805847168]]}, {"class_name": "MaxPooling1D", "pool_size": 2, "strides": 2}, {"class_name": "Flatten"}, {"class_name": "Dense", "units": 1, "activation": "sigmoid", "weights": [[[-0.04193434119224548], [0.4079992473125458], [0.04843282699584961], [-0.010462041944265366], [-0.14354060590267181], [-0.23323898017406464], [0.30311086773872375], [0.08415156602859497], [-0.09097050875425339], [0.220407173037529], [-0.07066550850868225], [0.11830595135688782], [-0.01952768675982952], [-0.2878255844116211], [0.3049139976501465], [0.10914209485054016], [0.008436985313892365], [0.48634904623031616], [-0.0346880741417408], [0.005579500459134579], [-0.07183937728404999], [-0.1065085157752037], [0.008924948051571846], [-0.06292977929115295], [-0.055125098675489426], [0.16111165285110474], [-0.06671350449323654], [-0.02990599162876606], [-0.11719729751348495], [-0.08434280008077621], [-0.10080407559871674], [-0.09520402550697327], [-0.05611744150519371], [0.28017401695251465], [-0.10399950295686722], [0.04536399990320206], [-0.004640193656086922], [0.048473745584487915], [0.39430323243141174], [0.09309161454439163], [-0.1789567917585373], [0.2935452461242676], [-0.2906593680381775], [-0.03316546604037285], [-0.23533590137958527], [0.06427181512117386], [0.3107055127620697], [-0.16168560087680817], [-0.2383008897304535], [0.527117133140564], [-0.160236656665802], [-0.06997093558311462], [-0.13221454620361328], [-0.3527863323688507], [-0.37641116976737976], [-0.07485803216695786], [-0.020289648324251175], [0.3034137487411499], [0.05293121188879013], [-0.03565867245197296], [-0.08585815131664276], [-0.27311205863952637], [-0.15836699306964874], [-0.010844537988305092], [0.05769727751612663], [0.341376394033432], [0.06983304023742676], [-0.10186454653739929], [0.08946959674358368], [-0.30825498700141907], [0.44098711013793945], [0.05171383544802666], [0.06550633907318115], [0.31497588753700256], [0.1912475973367691], [0.10952626168727875], [0.002254398772493005], [-0.12113585323095322], [0.3164418637752533], [0.10852374136447906], [-0.16688498854637146], [0.44506433606147766], [-0.2952170968055725], [-0.032053153961896896], [-0.1223878264427185], [-0.05432116612792015], [0.439014196395874], [-0.1677868664264679], [-0.2225608229637146], [0.5784919857978821], [-0.2895335853099823], [-0.0044295270927250385], [-0.3623417913913727], [-0.4565224051475525], [-0.461403489112854], [-0.3433944284915924], [-0.20053136348724365], [0.5563593506813049], [-0.32238149642944336], [-0.06588530540466309], [-0.1794789731502533], [-0.23885442316532135], [-0.08043556660413742], [-0.30341827869415283], [-0.5117409825325012], [0.46730107069015503], [-0.18445546925067902], [-0.08903404325246811], [-0.4095306694507599], [-0.44746410846710205], [-0.18964163959026337], [-0.3200848698616028], [-0.31941574811935425], [0.531640887260437], [-0.28272637724876404], [0.11372873932123184], [-0.2961375415325165], [-0.5755842924118042], [-0.47711417078971863], [-0.19704894721508026], [-0.012314380146563053], [0.3623749017715454], [-0.12377289682626724], [-0.08634895831346512], [-0.18172284960746765], [-0.7260270118713379], [0.217721089720726], [-0.2030935436487198], [-0.1749042272567749], [0.297072172164917], [-0.305817574262619], [0.10349135845899582], [-0.24987533688545227], [0.037075504660606384], [0.24218720197677612], [-0.17325350642204285], [-0.21087263524532318], [0.4489831030368805], [-0.2747887670993805], [-0.05652284622192383], [-0.38054826855659485], [-0.23382000625133514], [-0.23896367847919464], [-0.26533573865890503], [-0.1299935281276703], [0.3426434397697449], [-0.15930651128292084], [0.04087687283754349], [-0.1930156946182251], [-0.13765503466129303], [-0.21107904613018036], [-0.31908056139945984], [-0.25812605023384094], [0.23294375836849213], [-0.07865045964717865], [0.03124850057065487], [-0.16965252161026], [-0.12390556931495667], [-0.2551760673522949], [-0.12586605548858643], [-0.12828542292118073], [0.0845787525177002], [-0.04768151789903641], [0.11296086758375168], [-0.02934492751955986], [-0.35784417390823364], [-0.2627842128276825], [-0.20068009197711945], [-0.13370096683502197], [0.09007043391466141], [-0.19862601161003113], [-0.01118502952158451], [-0.1635139137506485], [-0.1607496440410614], [-0.27800631523132324], [-0.14662747085094452], [0.051035068929195404], [0.14192096889019012], [0.09599961340427399], [-0.0947822704911232], [-0.06142231076955795], [-0.04072907567024231], [-0.2021838277578354], [0.050583310425281525], [0.09393910318613052], [0.29353442788124084], [0.13697806000709534], [0.11169067025184631], [-0.04672156646847725], [-0.16978314518928528], [-0.1723288893699646], [0.10629983246326447], [-0.05747627839446068], [0.06714916974306107], [-0.08541284501552582], [-0.12158984690904617], [0.09081573039293289], [-0.10646996647119522], [-0.3285514712333679], [-0.06779410690069199], [0.0012222826480865479], [0.10181061923503876], [0.2099185585975647], [0.06161831319332123], [0.026831526309251785], [0.01858428493142128], [-0.11689770966768265], [0.21087948977947235], [0.12032759934663773], [0.038601722568273544], [0.3364872336387634], [-0.004108458757400513], [0.27430465817451477], [-0.029050542041659355], [-0.08994348347187042], [0.30547472834587097], [0.14543136954307556], [0.24143454432487488], [0.27710339426994324], [0.12805214524269104], [0.2016325294971466], [0.16349495947360992], [-0.03719339519739151], [0.32757383584976196], [0.34288138151168823], [0.26877671480178833], [0.17926795780658722], [0.061373576521873474], [0.24690201878547668], [-0.036733005195856094], [0.087004654109478], [0.36248934268951416], [0.2954586148262024], [0.05948477238416672], [0.3313986361026764], [0.06834498047828674], [0.2060554325580597], [0.05073942616581917], [0.19100724160671234], [0.1554536074399948], [0.26091769337654114], [0.2587500810623169], [0.3693397343158722], [-0.07291499525308609], [0.3148743808269501], [0.20386415719985962], [0.15685535967350006], [0.09377877414226532], [0.2857469320297241], [0.15260617434978485], [0.08848880976438522], [0.09089551866054535], [0.06888405978679657], [0.17800210416316986], [-0.037182919681072235], [0.16697901487350464], [0.2818223237991333], [0.08003968745470047], [0.1109408512711525], [-0.11949178576469421], [0.33267876505851746], [0.20656627416610718], [0.17095772922039032], [0.19470350444316864], [0.30913692712783813], [0.19261769950389862], [0.24925081431865692], [0.08779807388782501], [0.24364817142486572], [0.059846002608537674], [0.16173867881298065], [0.2659444808959961], [0.10749620199203491], [0.15217654407024384], [0.1781899780035019], [-0.11557420343160629], [0.09990310668945312], [0.1383381187915802], [-0.05653730034828186], [0.17114508152008057]], [0.10974836349487305]]}]}
