{"layers": [{"batch_input_shape": [null, 1], "class_name": "InputLayer"}, {"class_name": "Dense", "units": 20, "activation": "relu", "weights": [[[-0.454715371131897, 0.05384151265025139, -0.2742766737937927, -0.41034069657325745, 0.3901631832122803, -0.07505791634321213, -0.1312020719051361, -0.4537058472633362, -0.46437281370162964, 0.043806932866573334, -0.08941397070884705, -0.22834981977939606, -0.3185279965400696, 0.45137178897857666, -0.1938491314649582, -0.5349778532981873, -0.3408937156200409, 0.3052579164505005, 0.46505650877952576, -0.24013149738311768]], [0.05782594159245491, 0.031561873853206635, -0.06268772482872009, -0.04004991427063942, 0.04705195128917694, -0.1028505489230156, -0.03570258989930153, 0.02442898601293564, -0.03683170676231384, -0.0680709108710289, -0.08562733978033066, -0.03746623173356056, 0.09254065901041031, 0.05230877548456192, -0.043924544006586075, -0.06837952882051468, -0.051164671778678894, -0.05400223284959793, 0.04136088117957115, -0.05451071262359619]]}, {"class_name": "Dense", "units": 20, "activation": "relu", "weights": [[[0.2706238925457001, -0.024770785123109818, -0.06903493404388428, -0.24694964289665222, -0.19177372753620148, -0.28367769718170166, 0.11534713953733444, -0.09716565907001495, 0.1936536729335785, 0.12131040543317795, 0.05319195240736008, 0.3134133815765381, 0.0020679235458374023, -0.08408207446336746, 0.11037261039018631, -0.2587295472621918, 0.05463670566678047, 0.27389058470726013, 0.1455879807472229, 0.37406882643699646], [0.3475498557090759, 0.21772359311580658, -0.0062329769134521484, -0.027806013822555542, 0.17854222655296326, -0.1909681111574173, -0.2784678339958191, 0.018947487697005272, 0.19541025161743164, -0.06964800506830215, -0.004018075298517942, -0.2495766431093216, -0.011530101299285889, 0.12704740464687347, 0.35454967617988586, 0.32860708236694336, -0.23041243851184845, 0.067301444709301, -0.11786496639251709, 0.326591432094574], [0.03052706830203533, 0.0737762451171875, 0.11920922994613647, 0.28399303555488586, 0.15658238530158997, -0.14205330610275269, -0.31466343998908997, 0.35565996170043945, 0.2097293734550476, -0.06614640355110168, -0.37477031350135803, 0.09427687525749207, -0.16591428220272064, -0.1971239149570465, 0.08301449567079544, -0.0926901325583458, 0.12101470679044724, 0.10017875581979752, -0.236554354429245, 0.1759244054555893], [-0.37124842405319214, -0.3449137806892395, -0.18974673748016357, 0.32032689452171326, 0.0682368353009224, -0.13328033685684204, 0.03098500892519951, 0.1901867538690567, -0.2717284858226776, -0.05139152333140373, -0.3865657150745392, 0.0697435662150383, -0.3565061092376709, -0.18704430758953094, 0.00963644776493311, 0.0002646705543156713, -0.45876744389533997, -0.35765570402145386, -0.2232326865196228, -0.347330242395401], [-0.1268702745437622, 0.33086252212524414, 0.10360854864120483, -0.3016546368598938, 0.1274719387292862, -0.2744141221046448, 0.11069658398628235, -0.12928205728530884, 0.07653343677520752, 0.05932130292057991, -0.04094142094254494, -0.12623396515846252, -0.09410205483436584, 0.0962383970618248, 0.2530340254306793, 0.3620232343673706, 0.1082620769739151, 0.06643418967723846, -0.3589022159576416, 0.18884684145450592], [0.14550159871578217, -0.2956947088241577, 0.03162798285484314, -0.28466710448265076, -0.05456521734595299, -0.3147219121456146, 0.04113748297095299, -0.14936591684818268, 0.138546884059906, 0.03177357465028763, -0.07315678149461746, 0.22323989868164062, 0.19965851306915283, -0.45622435212135315, -0.3883952498435974, -0.1336904764175415, -0.3783842921257019, -0.1718570590019226, 0.25218653678894043, 0.2399206906557083], [-0.08364318311214447, 0.005033264402300119, -0.2398257553577423, -0.2079034000635147, -0.11145906150341034, 0.017558187246322632, -0.03718705475330353, 0.17587867379188538, 0.0592983178794384, -0.0517050139605999, -0.01866229996085167, 0.08152096718549728, -0.2537706196308136, -0.08955463767051697, 0.1966552883386612, -0.2399006336927414, 0.11711350083351135, -0.3357360064983368, -0.07393676042556763, -0.2499975711107254], [0.0037257771473377943, -0.01680421642959118, -0.33817800879478455, -0.25868889689445496, -0.29858970642089844, -0.33062899112701416, 0.2339470237493515, 0.20874102413654327, -0.09128568321466446, 0.24265030026435852, 0.12185537070035934, -0.20127087831497192, -0.22599491477012634, 0.2689588665962219, 0.35280895233154297, 0.27373775839805603, 0.09246426075696945, -0.22105248272418976, 0.19250446557998657, -0.10514140874147415], [-0.31732818484306335, 0.10024816542863846, 0.27002793550491333, 0.3031504452228546, 0.33875715732574463, -0.14731746912002563, 0.31979504227638245, -0.2798042595386505, 0.09169411659240723, 0.3220803141593933, 0.030759723857045174, 0.02733093500137329, -0.3657952547073364, 0.08417005836963654, -0.3932481110095978, 0.33839839696884155, 0.17905555665493011, -0.1811000555753708, -0.09276703000068665, -0.16828612983226776], [0.18842187523841858, -0.3100736439228058, -0.1292833685874939, -0.10938629508018494, 0.219296395778656, 0.04718908667564392, 0.2932063043117523, 0.23472625017166138, 0.10821862518787384, 0.20464105904102325, 0.19552427530288696, -0.07324017584323883, 0.05348142981529236, -0.3432033061981201, 0.019549895077943802, 0.248310849070549, -0.08715466409921646, -0.060669634491205215, 0.005698531866073608, 0.3246799111366272], [-0.3261522948741913, -0.22581785917282104, 0.3096020221710205, 0.14343959093093872, 0.38825109601020813, -0.017169266939163208, 0.10918226093053818, 0.39928218722343445, -0.35209590196609497, -0.3308256268501282, 0.06172803416848183, 0.03145640343427658, 0.08778014779090881, -0.3065966069698334, -0.4429887533187866, -0.42951780557632446, 0.29625555872917175, 0.021322935819625854, 0.19099342823028564, -0.3088913857936859], [-0.2074718028306961, -0.15593472123146057, -0.3393162488937378, -0.16278189420700073, 0.11167202144861221, -0.2715853452682495, 0.246363565325737, 0.04275152087211609, 0.3282346725463867, 0.3356539011001587, -0.08583494275808334, -0.11135777831077576, 0.2484205961227417, -0.3868064284324646, -0.0066408864222466946, 0.32056939601898193, -0.08685429394245148, -0.5561482906341553, -0.038380950689315796, -0.3164222538471222], [-0.1686512976884842, 0.01929616369307041, -0.29639527201652527, 0.293403297662735, 0.3784239888191223, 0.18132460117340088, -0.003429969772696495, -0.36861854791641235, 0.22583334147930145, 0.24144519865512848, 0.3461729884147644, 0.0604812316596508, 0.0973244309425354, -0.12354348599910736, 0.3277486264705658, 0.22225786745548248, 0.24490123987197876, 0.39685308933258057, -0.21842487156391144, 0.15294599533081055], [-0.18345652520656586, -0.13535048067569733, -0.3520013391971588, -0.20916657149791718, -0.07635283470153809, -0.3686967194080353, -0.010843377560377121, 0.23093515634536743, 0.06889032572507858, 0.16217629611492157, -0.17044556140899658, 0.04258136823773384, -0.3635922074317932, 0.36111244559288025, -0.009505875408649445, -0.31802698969841003, 0.39066776633262634, 0.24407032132148743, 0.07813006639480591, 0.31041446328163147], [-0.1865575909614563, 0.3722456991672516, -0.001105666160583496, -0.06212321296334267, 0.1482798159122467, -0.24699237942695618, -0.28757908940315247, 0.08490272611379623, -0.4008794128894806, -0.07996270060539246, 0.15766941010951996, -0.07728572934865952, 0.29268842935562134, 0.16820663213729858, -0.4071963131427765, 0.0023638615384697914, 0.05515039339661598, -0.18560512363910675, -0.3192656636238098, 0.3431850075721741], [0.11545316129922867, 0.2323848009109497, -0.0607796311378479, -0.25138089060783386, -0.08654049783945084, 0.21852385997772217, 0.2664894461631775, 0.38393843173980713, -0.3142695426940918, -0.3260749578475952, 0.2703883945941925, -0.38134875893592834, -0.26023417711257935, 0.2807455062866211, -0.32081055641174316, -0.3249426484107971, 0.30604004859924316, -0.19045813381671906, -0.3105362057685852, -0.21447694301605225], [0.15716443955898285, -0.031549856066703796, 0.19196057319641113, -0.3423544466495514, 0.2480875700712204, -0.263891339302063, -0.07547160238027573, 0.20047788321971893, 0.2225436121225357, 0.2905995845794678, -0.09094638377428055, 0.19100601971149445, 0.16866838932037354, -0.21612322330474854, 0.10992632061243057, -0.12414499372243881, -0.005915692076086998, -0.3820187449455261, 0.14348649978637695, 0.38405802845954895], [0.20174051821231842, 0.11810066550970078, 0.23411071300506592, -0.24671591818332672, 0.31184011697769165, -0.24915246665477753, -0.04490874335169792, -0.1258041262626648, -0.03986165672540665, 0.33492401242256165, 0.030157586559653282, 0.17538781464099884, 0.2359136939048767, 0.37501251697540283, -0.16264934837818146, -0.0028355284593999386, -0.18428926169872284, 0.20430663228034973, 0.09459108114242554, 0.3983059823513031], [0.1987512856721878, -0.07297679781913757, 0.030792325735092163, -0.1963614523410797, 0.26199787855148315, -0.0020518600940704346, 0.11286512762308121, -0.12260410189628601, 0.35032323002815247, 0.06882921606302261, -0.19630596041679382, 0.13193683326244354, -0.3544435203075409, -0.2573665976524353, 0.3102433383464813, 0.01616024039685726, 0.33801770210266113, 0.09069174528121948, -0.27865999937057495, 0.19287355244159698], [-0.21177822351455688, -0.2863384187221527, 0.18106895685195923, 0.06640530377626419, -0.0714569166302681, 0.16847199201583862, -0.10829664766788483, 0.38522109389305115, 0.07586793601512909, -0.23817771673202515, -0.20157501101493835, -0.006550758611410856, 0.3550146222114563, 0.06703636050224304, 0.0019444492645561695, -0.07808265835046768, -0.33535051345825195, -0.6282671093940735, 0.01178044080734253, -0.02250254526734352]], [0.04823790118098259, -0.04137017950415611, 0.0, -0.02400774136185646, -0.04798343777656555, 0.0, 0.025211410596966743, -0.06727759540081024, 0.04913720488548279, -0.033058084547519684, 0.00691990414634347, -0.014285032637417316, 0.0, 0.05829765647649765, 0.05473580211400986, 0.04903525114059448, 0.04012308269739151, 0.033265404403209686, 0.0, 0.02519349567592144]]}, {"class_name": "Dense", "units": 20, "activation": "relu", "weights": [[[-0.17941008508205414, 0.33531925082206726, 0.26025906205177307, 0.32320675253868103, -0.05849996209144592, 0.2741721272468567, -0.1593635082244873, 0.29316920042037964, -0.22404561936855316, 0.09982457011938095, -0.014014869928359985, 0.22375784814357758, -0.0766461044549942, 0.3362613320350647, -0.059932466596364975, -0.11423476785421371, -0.1257191151380539, 0.23325887322425842, 0.2474946677684784, -0.12006735801696777], [-0.16391441226005554, 0.38466331362724304, -0.014542895369231701, -0.13017243146896362, 0.1778218299150467, -0.03474171832203865, 0.1093461662530899, 0.17502720654010773, -0.30191904306411743, 0.3114798665046692, -0.1284400224685669, 0.14499247074127197, 0.13661973178386688, -0.24033139646053314, 0.04190899059176445, -0.09154585748910904, -0.20554856956005096, 0.310546875, -0.12310599535703659, -0.25513797998428345], [0.08939766883850098, -0.15157586336135864, 0.22114598751068115, -0.24607369303703308, -0.27378207445144653, -0.17280961573123932, 0.08640605211257935, 0.28531312942504883, 0.023558586835861206, 0.09363481402397156, 0.280539333820343, 0.0992228090763092, 0.1871979832649231, -0.14962954819202423, 0.2654612064361572, 0.11215555667877197, -0.05506208539009094, 0.1729106307029724, 0.3745731711387634, 0.3709617257118225], [-0.3183329105377197, -0.15963971614837646, 0.3392767608165741, 0.2592310905456543, 0.2462702989578247, -0.11488574743270874, 0.30332303047180176, -0.2898833453655243, -0.2318095564842224, -0.053824298083782196, 0.2783188819885254, 0.006804853677749634, 0.11136369407176971, 0.07871800661087036, -0.18807758390903473, -0.18595176935195923, 0.15090346336364746, 0.20850463211536407, 0.07677347958087921, 0.2674607038497925], [-0.0874907597899437, 0.10427291691303253, 0.2440166026353836, 0.02227959968149662, -0.39362889528274536, -0.043216295540332794, -0.1836700588464737, -0.35363295674324036, -0.2405649572610855, -0.3610683083534241, -0.10970598459243774, -0.26828041672706604, -0.28844866156578064, -0.0997667908668518, -0.2883339822292328, 0.33368948101997375, 0.34368425607681274, -0.3532432019710541, -0.037187445908784866, -0.2782398462295532], [0.28018367290496826, 0.2633987069129944, -0.18696695566177368, 0.3702552318572998, 0.3470926880836487, 0.35763710737228394, 0.09376677870750427, 0.17081934213638306, 0.29671627283096313, 0.10845625400543213, -0.10015949606895447, -0.36118030548095703, -0.19057363271713257, 0.041943371295928955, -0.01555904746055603, 0.2297605276107788, -0.28934869170188904, 0.2183767557144165, -0.2739502191543579, 0.31739920377731323], [-0.2232530415058136, 0.2604479491710663, 0.10098101943731308, -0.2417832762002945, -0.4305956959724426, 0.3085448443889618, 0.27714502811431885, 0.14745481312274933, -0.16040343046188354, 0.027473313733935356, -0.0946246087551117, -0.19096964597702026, 0.38792210817337036, -0.3169354796409607, -0.07566573470830917, 0.1805213987827301, -0.2518514394760132, 0.371681809425354, 0.32807260751724243, -0.23467156291007996], [-0.03342723101377487, 0.25236445665359497, 0.34787651896476746, 0.21054969727993011, 0.26342761516571045, -0.3558778762817383, -0.3599543571472168, 0.1716993898153305, -0.2319776564836502, -0.09161072224378586, -0.02111297845840454, -0.2762110233306885, 0.35470646619796753, 0.037145912647247314, -0.16215048730373383, -0.04198410362005234, -0.28317785263061523, 0.3191698491573334, -0.3760969638824463, -0.27228155732154846], [0.23945406079292297, 0.3091735243797302, -0.15166747570037842, 0.05337590351700783, -0.07734726369380951, 0.4064200222492218, -0.21023209393024445, -0.3146650791168213, -0.19695717096328735, 0.2455291748046875, -0.17432186007499695, 0.13505446910858154, 0.3137936592102051, -0.3751544654369354, 0.14622382819652557, 0.3816867768764496, -0.3040288984775543, -0.16057813167572021, 0.3048044741153717, 0.1594439148902893], [-0.1611119508743286, -0.23812171816825867, -0.25161999464035034, -0.15395799279212952, 0.21214044094085693, 0.3159118592739105, -0.3408810794353485, 0.3522472381591797, 0.37781697511672974, -0.08386357128620148, 0.19009381532669067, -0.009761233814060688, -0.3602440357208252, -0.3817085027694702, -0.31569957733154297, 0.2374010980129242, 0.06942276656627655, 0.21343138813972473, 0.1439344733953476, -0.03667747974395752], [0.2911325991153717, 0.08694780617952347, 0.2922516167163849, 0.021855143830180168, -0.19956399500370026, -0.43924641609191895, 0.2649465501308441, 0.32073232531547546, -0.30971959233283997, 0.21570560336112976, 0.1579838991165161, 0.21282950043678284, 0.27151307463645935, -0.21198153495788574, -0.35122355818748474, -0.14132742583751678, 0.17259669303894043, 0.06246469169855118, -0.19376789033412933, 0.2395026683807373], [-0.03091907501220703, -0.26693007349967957, -0.32245689630508423, -0.42029088735580444, 0.18486285209655762, 0.2635745406150818, 0.05123698338866234, 0.2684176564216614, -0.10333964228630066, -0.24022938311100006, -0.12403509020805359, -0.09185288846492767, -0.10386742651462555, 0.17615121603012085, 0.038761239498853683, -0.053458571434020996, 0.19642134010791779, -0.06662075221538544, 0.1694953292608261, -0.12376156449317932], [0.21469742059707642, -0.24082495272159576, 0.21637201309204102, 0.012381017208099365, 0.15578311681747437, -0.20908023416996002, -0.13998684287071228, 0.2211264967918396, 0.0735672116279602, 0.16606616973876953, -0.14942602813243866, -0.009553879499435425, -0.07719060778617859, -0.1466309279203415, 0.17083364725112915, -0.29701393842697144, 0.03353562951087952, -0.000616908073425293, 0.1857212781906128, 0.00690382719039917], [-0.25757527351379395, 0.37231793999671936, 0.2806206941604614, -0.33493924140930176, -0.3093288838863373, 0.17166809737682343, -0.1563408225774765, 0.2687121033668518, -0.308010071516037, 0.3617408573627472, -0.12663784623146057, 0.35727936029434204, 0.25047069787979126, -0.12720155715942383, 0.13816536962985992, 0.267962247133255, 0.1334778070449829, -0.20621058344841003, 0.1318126916885376, -0.382463663816452], [0.02037280797958374, 0.32770490646362305, -0.014042386785149574, -0.1829957365989685, -0.28816649317741394, 0.05809566006064415, -0.22971627116203308, -0.35768410563468933, 0.2142220139503479, -0.117902971804142, -0.28178372979164124, -0.12485495954751968, -0.2189507633447647, 0.21889489889144897, 0.1290712207555771, -0.23996463418006897, -0.2659843862056732, -0.3035546541213989, 0.37247827649116516, 0.3000217080116272], [0.2283872365951538, -0.14471904933452606, 0.2283116728067398, 0.2800052762031555, -0.3661128282546997, 0.012312996201217175, 0.3022824823856354, -0.13030797243118286, 0.3654700517654419, -0.06145182251930237, 0.2973834276199341, -0.04447002708911896, -0.09402608871459961, 0.265764057636261, -0.044078513979911804, 0.07926497608423233, -0.2685634195804596, -0.026897007599473, 0.35796934366226196, -0.1887143850326538], [-0.0011196050327271223, 0.2664775848388672, -0.31264591217041016, 0.10888434201478958, 0.3134746849536896, 0.2125624567270279, 0.045195549726486206, -0.2674224376678467, 0.17547136545181274, -0.08550886809825897, -0.25613468885421753, -0.09924875199794769, -0.25591444969177246, -0.06266188621520996, 0.339952677488327, 0.20288676023483276, 0.34582632780075073, 0.27893367409706116, 0.3860623240470886, -0.21952416002750397], [-0.030717208981513977, 0.3637372851371765, 0.3556702733039856, 0.22577758133411407, -0.30204451084136963, 0.3847483694553375, -0.29396936297416687, -0.26891687512397766, 0.12486578524112701, -0.07889778167009354, -0.3019392490386963, -0.2187536507844925, 0.12688523530960083, -0.046509742736816406, 0.1659458428621292, -0.3155866265296936, -0.0923762395977974, 0.2989162504673004, -0.05451451241970062, -0.3233155608177185], [-0.24039548635482788, -0.34243059158325195, -0.20324043929576874, 0.12831979990005493, 0.15849030017852783, -0.36108916997909546, -0.15340261161327362, -0.29925456643104553, 0.0968388020992279, -0.14457185566425323, -0.15684759616851807, 0.3335508704185486, 0.21602976322174072, -0.31557393074035645, -0.2707839012145996, 0.2331567406654358, 0.3448956608772278, 0.2457001805305481, 0.07169440388679504, 0.29600679874420166], [-0.33500051498413086, 0.05969277769327164, 0.19919437170028687, -0.11838657408952713, -0.028080791234970093, -0.06661833822727203, -0.17731977999210358, 0.006134414579719305, 0.39556095004081726, 0.20930661261081696, 0.08142518997192383, 0.3549775183200836, 0.1260327398777008, -0.3151644170284271, 0.282897412776947, -0.31411680579185486, -0.26985910534858704, 0.26215291023254395, 0.012165718711912632, 0.14940005540847778]], [0.1642240434885025, 0.0592874251306057, 0.060231152921915054, -0.03128599002957344, -0.0141804413869977, 0.05877172201871872, 0.0024342574179172516, 0.04533453285694122, 0.05992441624403, 0.05196794494986534, 0.0, -0.033727653324604034, -0.07318195700645447, 0.0, 0.04383391886949539, -0.027007436379790306, -0.016778450459241867, -0.042254358530044556, 0.059473421424627304, 0.0]]}, {"class_name": "Dense", "units": 1, "activation": "linear", "weights": [[[0.25309017300605774], [0.2913048267364502], [0.19345170259475708], [-0.36275896430015564], [0.42951419949531555], [0.18528783321380615], [0.4019888639450073], [0.40768513083457947], [0.10483641177415848], [0.1462489515542984], [-0.43741923570632935], [-0.21068525314331055], [-0.2091371715068817], [0.2167401909828186], [0.4984283447265625], [-0.4739152789115906], [-0.17874398827552795], [-0.4861057698726654], [0.3721744120121002], [-0.15151989459991455]], [0.06030114367604256]]}]}
