{"layers": [{"batch_input_shape": [null, 1], "class_name": "InputLayer"}, {"class_name": "Dense", "units": 20, "activation": "relu", "weights": [[[-0.37357228994369507, -0.08450844883918762, 0.10639879107475281, -0.4055485129356384, -0.23530307412147522, 0.5395435690879822, 0.32232195138931274, 0.20454134047031403, 0.20866334438323975, -0.26142627000808716, -0.18074598908424377, 0.4054008424282074, -0.18746909499168396, 0.5240414142608643, -0.47395849227905273, -0.22310975193977356, -0.39748525619506836, 0.05341090261936188, -0.3431684970855713, -0.5326429605484009]], [0.0, 0.0, 0.15637147426605225, 0.0, 0.0, -0.07802269607782364, 0.16166795790195465, 0.19555296003818512, -0.18678224086761475, 0.0, 0.0, -0.14607398211956024, 0.0, 0.18966569006443024, 0.0, 0.0, 0.0, 0.18011820316314697, 0.0, 0.0]]}, {"class_name": "Dense", "units": 20, "activation": "relu", "weights": [[[0.3420543670654297, 0.38391178846359253, -0.028831690549850464, 0.024076879024505615, 0.24476802349090576, -0.32731151580810547, 0.15144532918930054, -0.12273892760276794, -0.14399833977222443, 0.3822982907295227, 0.24002009630203247, 0.14512884616851807, 0.1926020383834839, 0.020809531211853027, -0.15543010830879211, 0.34032726287841797, -0.36142030358314514, -0.30001819133758545, 0.013415664434432983, 0.17976081371307373], [-0.27465957403182983, -0.2266283631324768, -0.1993219405412674, -0.26640889048576355, -0.06395500898361206, -0.15356697142124176, -0.2307526022195816, 0.381732702255249, -0.22690308094024658, 0.20024681091308594, -0.2994055449962616, -0.03998976945877075, -0.11610934138298035, -0.2988201081752777, -0.06207340955734253, -0.20356768369674683, -0.1995505690574646, 0.24017757177352905, -0.03985190391540527, 0.2061779499053955], [-0.22528325021266937, 0.07951921224594116, -0.22395449876785278, -0.0036091806832700968, -0.3232021629810333, 0.4344829320907593, -0.2757892608642578, -0.12105748057365417, -0.18453586101531982, -0.15169233083724976, 0.1060400903224945, -0.24546517431735992, 0.047831565141677856, 0.02380475401878357, -0.04373203217983246, 0.24488556385040283, 0.007224878296256065, -0.03045344352722168, 0.02222234010696411, 0.030076904222369194], [0.37824928760528564, -0.08353957533836365, 0.010760277509689331, -0.3563547730445862, 0.062163710594177246, 0.04266244173049927, -0.18478499352931976, -0.2833913564682007, 0.3606974482536316, -0.07990464568138123, 0.15385717153549194, -0.3442263901233673, -0.16048067808151245, -0.18175137042999268, -0.02506139874458313, 0.2575541138648987, -0.3746534287929535, -0.2954573929309845, 0.12064558267593384, -0.005738973617553711], [0.09112310409545898, -0.060782402753829956, -0.16968920826911926, -0.08663606643676758, -0.08552441000938416, -0.1822822242975235, -0.186198890209198, -0.059645891189575195, -0.14660516381263733, -0.25583940744400024, -0.1588251292705536, -0.29856792092323303, 0.3184491991996765, -0.10355046391487122, -0.0793224573135376, 0.19561970233917236, -0.33079326152801514, -0.2079639583826065, -0.3681305944919586, -0.04740172624588013], [-0.41106781363487244, 0.02479112148284912, -0.05857133865356445, 0.10757436603307724, -0.37946391105651855, -0.33612969517707825, -0.041265517473220825, -0.37710803747177124, 0.2207908034324646, -0.07265929132699966, 0.22623100876808167, -0.016446268185973167, 0.2644011676311493, 0.22109538316726685, 0.3099544942378998, -0.18157167732715607, 0.13497304916381836, -0.2831605076789856, -0.19759224355220795, 0.18037639558315277], [-0.149276465177536, 0.15113312005996704, -0.3056414723396301, 0.09081101417541504, -0.045626699924468994, 0.373510479927063, -0.003407299518585205, -0.18018989264965057, -0.266693115234375, 0.19117702543735504, 0.2668686509132385, 0.020263314247131348, 0.16130365431308746, -0.16847476363182068, 0.17609521746635437, -0.19721853733062744, 0.2896684408187866, 0.023804843425750732, -0.3659801185131073, 0.37300705909729004], [0.251701295375824, 0.18171006441116333, 0.3651773929595947, 0.0702691301703453, -0.30972933769226074, 0.2399003505706787, -0.3622467517852783, 0.15719634294509888, 0.016087770462036133, -0.15663552284240723, 0.2147669643163681, 0.29630807042121887, 0.1793961226940155, 0.20819729566574097, 0.05547373741865158, -0.11413106322288513, -0.15389034152030945, 0.11688846349716187, 0.3494682312011719, 0.25035107135772705], [-0.9443033337593079, 0.055854737758636475, 0.16805177927017212, 0.31220588088035583, 0.23961478471755981, 0.05147094279527664, 0.364959180355072, -0.13744761049747467, -0.11449265480041504, 0.22775733470916748, -0.20459140837192535, -0.23817908763885498, -0.06453016400337219, 0.3426946997642517, -0.30520734190940857, 0.03585878014564514, -0.1646556705236435, -0.20634876191616058, 0.22368699312210083, -0.2935144603252411], [-0.26296454668045044, -0.1763053983449936, 0.19621437788009644, 0.15864932537078857, 0.12977826595306396, -0.03444203734397888, -0.21850205957889557, -0.142261803150177, -0.18889297544956207, 0.32240498065948486, 0.14962410926818848, 0.30860793590545654, 0.13453412055969238, 0.30078768730163574, 0.07170382142066956, -0.06346088647842407, -0.3562000095844269, -0.1484547108411789, 0.23572790622711182, 0.2744635343551636], [-0.3130345940589905, 0.3498572111129761, -0.2326548844575882, 0.1294342279434204, 0.2348414659500122, 0.043802618980407715, -0.15251320600509644, -0.10004740953445435, 0.15146690607070923, 0.007090628147125244, 0.3508720397949219, 0.1716773509979248, 0.03255230188369751, -0.349415123462677, -0.02979201078414917, -0.20330332219600677, -0.37774309515953064, 0.12222135066986084, -0.1287825107574463, 0.0307580828666687], [-0.5193619132041931, -0.10093498229980469, 0.18490219116210938, 0.21531781554222107, -0.12320032715797424, -0.3709357976913452, 0.3530345559120178, -0.17969302833080292, -0.22544531524181366, 0.213278129696846, -0.08924420177936554, 0.0007881041383370757, 0.21051059663295746, -0.018253594636917114, 0.13234929740428925, 0.01992097496986389, 0.30314841866493225, -0.09606713056564331, 0.1364833116531372, -0.0377545990049839], [-0.3759652078151703, -0.1274389624595642, -0.35920536518096924, 0.0770823061466217, -0.32386747002601624, -0.1880825161933899, 0.14788347482681274, 0.040072858333587646, -0.37554430961608887, 0.3615833520889282, 0.31556379795074463, -0.23460692167282104, 0.18233054876327515, -0.08400246500968933, 0.003519415855407715, -0.316863089799881, 0.13689672946929932, 0.3067783713340759, -0.026042401790618896, 0.13276898860931396], [0.20081764459609985, -0.2021973729133606, -0.26154640316963196, -0.3300585448741913, -0.05806514620780945, 0.17490403354167938, -0.14204157888889313, 0.15251965820789337, -0.13798022270202637, -0.20803302526474, 0.27037185430526733, 0.37127095460891724, 0.1850607544183731, -0.363390177488327, -0.3918219208717346, -0.32421207427978516, -0.004854483064264059, 0.03229781985282898, -0.08054843544960022, 0.054230134934186935], [-0.36009663343429565, -0.030533581972122192, -0.11025309562683105, 0.04367262125015259, 0.054810553789138794, -0.0348908007144928, 0.03962188959121704, 0.06565174460411072, 0.17973339557647705, -0.34062138199806213, 0.24056047201156616, 0.1470956802368164, -0.1380394995212555, 0.2410421371459961, 0.2791265845298767, 0.3740934729576111, 0.16752922534942627, -0.029248058795928955, 0.04431271553039551, -0.34343773126602173], [-0.33332279324531555, 0.1632460355758667, -0.05881151556968689, 0.012181103229522705, 0.11723446846008301, 0.07737278938293457, -0.05636417865753174, -0.2848650813102722, -0.19252069294452667, -0.11590185761451721, 0.20826458930969238, 0.23352426290512085, 0.22125422954559326, 0.09780421853065491, -0.09094202518463135, -0.3090757429599762, 0.36593902111053467, -0.10241636633872986, -0.21720321476459503, -0.20433409512043], [0.38684171438217163, -0.10581710934638977, -0.0048604607582092285, -0.36610549688339233, -0.33936020731925964, -0.1971575915813446, -0.011528551578521729, 0.05509349703788757, 0.08661621809005737, 0.16908538341522217, -0.30798274278640747, -0.37163016200065613, 0.18678659200668335, 0.35004132986068726, 0.1492553949356079, -0.07874393463134766, -0.07443836331367493, 0.3187240958213806, -0.06855931878089905, 0.02589353919029236], [0.47327128052711487, -0.32985037565231323, 0.05710786581039429, 0.11929582059383392, 0.1876543164253235, 0.13146311044692993, -0.026668012142181396, 0.29782161116600037, 0.13393986225128174, 0.21697719395160675, 0.2115977257490158, 0.05445483326911926, -0.3586794435977936, -0.3672417402267456, -0.14299838244915009, 0.3562201261520386, -0.0364626869559288, -0.2544466257095337, -0.15529242157936096, -0.3208864629268646], [0.25829023122787476, -0.2026098519563675, -0.19776029884815216, -0.1193937361240387, -0.16870403289794922, 0.14744675159454346, 0.3797686696052551, 0.1644192934036255, 0.20821243524551392, 0.05910959839820862, 0.2565852999687195, 0.07894736528396606, -0.0216791033744812, 0.10782632231712341, 0.10162040591239929, 0.25582897663116455, 0.1448391079902649, 0.28454136848449707, 0.05154961347579956, -0.2756076157093048], [-0.24166524410247803, -0.2969145178794861, -0.004346400499343872, -0.03368493914604187, -0.2766283452510834, 0.17163950204849243, -0.30992287397384644, 0.013093054294586182, -0.05745062232017517, 0.1978912353515625, -0.031732141971588135, 0.2935637831687927, -0.1095271110534668, 0.09628301858901978, 0.1758037805557251, 0.26952069997787476, 0.2414371371269226, -0.36429205536842346, -0.38312241435050964, -0.06290796399116516]], [0.24172841012477875, 0.0, 0.0, -0.012323620729148388, 0.0, 0.17609956860542297, 0.0, -0.022962965071201324, 0.0, -0.02794596366584301, 0.13710469007492065, 0.1388511210680008, -0.11369026452302933, 0.0, -0.016623107716441154, 0.0, 0.0924382358789444, 0.0, 0.0, 0.09758266061544418]]}, {"class_name": "Dense", "units": 20, "activation": "relu", "weights": [[[-0.28553277254104614, 0.17720568180084229, 0.6151241660118103, -0.07376223802566528, 0.3241312503814697, -0.21931768953800201, 0.242298424243927, 0.7725512385368347, 0.6587342023849487, -0.14749659597873688, 0.5421463847160339, 0.9064350724220276, -1.0551042556762695, 0.04960283637046814, 0.38172173500061035, -0.18178747594356537, 0.47175827622413635, -0.07462987303733826, -0.26415517926216125, 0.19860899448394775], [-0.38653627038002014, -0.34113404154777527, -0.31099557876586914, -0.2404877245426178, -0.01621568202972412, -0.28136008977890015, -0.07266783714294434, 0.21399056911468506, 0.35187965631484985, 0.3162176012992859, 0.2819685935974121, 0.2682682275772095, -0.25877317786216736, 0.2767850160598755, -0.02906706929206848, -0.07417482137680054, 0.3509729504585266, -0.3742951452732086, 0.12348216772079468, -0.24707196652889252], [0.3315189480781555, 0.13269031047821045, 0.2666061520576477, -0.02735757827758789, 0.122219979763031, 0.21611863374710083, -0.1844446212053299, -0.08132076263427734, 0.179654061794281, 0.1497315764427185, -0.13161501288414001, -0.27250218391418457, 0.1526714563369751, 0.3506156802177429, -0.13912172615528107, -0.174917533993721, 0.12175345420837402, 0.08922940492630005, 0.1555267572402954, -0.35326075553894043], [-0.10224980115890503, 0.3175705075263977, -0.3041708767414093, -0.17183761298656464, -0.2179316282272339, 0.3354330062866211, -0.310168594121933, -0.2732381224632263, 0.0033911592327058315, 0.07144814729690552, -0.2692341208457947, 0.3777787387371063, 0.11656486988067627, -0.12851177155971527, -0.23738805949687958, -0.1264868676662445, 0.3322104811668396, 0.19082587957382202, 0.34268462657928467, -0.06204116344451904], [0.14812171459197998, -0.05525195598602295, 0.16389614343643188, -0.22387675940990448, -0.13429570198059082, 0.3194394111633301, -0.3096591532230377, -0.1821703165769577, -0.37089040875434875, 0.1743330955505371, 0.13288265466690063, -0.2015259712934494, 0.017117083072662354, -0.25121188163757324, -0.15696145594120026, -0.07921874523162842, -0.29022592306137085, 0.22979044914245605, 0.006369829177856445, -0.2093382328748703], [0.02775418758392334, -0.21784451603889465, 0.19967526197433472, -0.23920994997024536, 0.010176165029406548, 0.03955799341201782, -0.1744605451822281, 0.3970368504524231, 0.3372589945793152, -0.3042554557323456, 0.3961522877216339, 0.24502094089984894, -0.21195456385612488, -0.05361922085285187, 0.29247525334358215, 0.18931400775909424, -0.2394016683101654, -0.2960658073425293, -0.15165241062641144, -0.18966169655323029], [0.3336784839630127, -0.12912610173225403, -0.29829591512680054, -0.03785434365272522, 0.11069098114967346, -0.12029221653938293, -0.2315775603055954, 0.3423243761062622, 0.31011539697647095, 0.27627134323120117, 0.12416201829910278, 0.16523003578186035, -0.1938501000404358, -0.0566597580909729, -0.18066121637821198, -0.21163147687911987, 0.07664617896080017, 0.3726062774658203, -0.2766473591327667, 0.2614554762840271], [-0.35638347268104553, 0.25565916299819946, -0.2488291710615158, -0.14457397162914276, -0.2190306931734085, -0.3240150213241577, -0.38087764382362366, -0.33620619773864746, -0.031108660623431206, -0.33801916241645813, -0.3723321259021759, -0.3654325306415558, -0.1971677541732788, 0.38476991653442383, 0.18059803545475006, 0.35270190238952637, 0.09145236015319824, 0.011894464492797852, -0.27331870794296265, 0.11159330606460571], [-0.06305181980133057, 0.07718294858932495, -0.38561511039733887, -0.2247244268655777, -0.02575153112411499, -0.034162163734436035, 0.06872051954269409, 0.18079984188079834, -0.3379021883010864, -0.04519835114479065, -0.2519456148147583, 0.24074453115463257, -0.38323062658309937, 0.03080117702484131, 0.029285818338394165, -0.032302796840667725, -0.36046653985977173, 0.2369598150253296, -0.3315093517303467, 0.3480663299560547], [-0.3237290382385254, -0.056454479694366455, 0.19822967052459717, 0.013268711045384407, -0.012489122338593006, -0.28599512577056885, 0.167647123336792, -0.18743760883808136, -0.13200533390045166, -0.373139351606369, 0.197501540184021, -0.3305853307247162, -0.24401895701885223, 0.2097243368625641, 0.30197274684906006, 0.14763087034225464, 0.0004969969158992171, 0.3291916251182556, -0.1806815266609192, -0.1715843677520752], [-0.2515580654144287, -0.31627514958381653, 0.15083971619606018, -0.21178343892097473, 0.34569504857063293, -0.22882096469402313, -0.258611798286438, -0.37078580260276794, 0.4393080770969391, 0.01770538091659546, 0.26445600390434265, 0.022769449278712273, 0.15653781592845917, -0.1097622886300087, 0.1951221376657486, -0.14943896234035492, 0.38012683391571045, -0.20084285736083984, -0.1120387613773346, -0.3714979290962219], [0.16192328929901123, 0.14292830228805542, 0.4253592789173126, 0.02287101373076439, 0.366752952337265, 0.29566460847854614, -0.21325618028640747, 0.16531884670257568, 0.2309180200099945, -0.2209140509366989, 0.05442606285214424, 0.2224285751581192, 0.3551563024520874, 0.13952812552452087, -0.21424783766269684, -0.2626822590827942, 0.37592923641204834, 0.36962825059890747, -0.24901404976844788, -0.3811885416507721], [0.24183893203735352, -0.08066633343696594, 0.32321566343307495, 0.16451618075370789, 0.3249574899673462, -0.21865026652812958, -0.1621914505958557, -0.7831183075904846, -0.14420929551124573, -0.3359392285346985, -0.3336493968963623, -0.29115453362464905, -0.01547237578779459, 0.2724713087081909, -0.02032366953790188, -0.25985652208328247, -0.05579717829823494, 0.07939106225967407, -0.16893617808818817, 0.24591577053070068], [-0.030810624361038208, 0.1088005006313324, -0.05521741509437561, -0.3738899528980255, -0.3013957142829895, 0.13723653554916382, 0.05985310673713684, 0.2887561321258545, -0.22701536118984222, -0.023637443780899048, -0.36211341619491577, -0.3156985938549042, -0.32787054777145386, -0.15187670290470123, -0.2466232031583786, -0.02598312497138977, 0.15488797426223755, 0.18881464004516602, 0.11051616072654724, -0.279630571603775], [-0.37766221165657043, -0.28871968388557434, -0.3670497238636017, 0.2173292487859726, 0.024905551224946976, 0.013759374618530273, 0.3864421844482422, -0.17501753568649292, 0.3083352744579315, 0.15965425968170166, -0.0501747727394104, -0.30273833870887756, 0.08742684125900269, 0.17991961538791656, 0.38633349537849426, -0.09276619553565979, 0.20740094780921936, -0.11702442169189453, -0.24760402739048004, 0.09587553143501282], [0.32874178886413574, -0.26665201783180237, -0.15370899438858032, -0.34176233410835266, 0.30855756998062134, -0.16649481654167175, -0.21737368404865265, -0.3354116976261139, -0.2317078560590744, 0.012602359056472778, -0.051158010959625244, 0.26141923666000366, 0.2578597664833069, -0.07562407851219177, -0.2494232952594757, -0.338349848985672, -0.1847340166568756, 0.345821738243103, 0.10487663745880127, -0.15861590206623077], [-0.14414331316947937, -0.34228643774986267, -0.30669358372688293, 0.17628368735313416, -0.06175515800714493, 0.24759125709533691, -0.03907099366188049, -0.23339951038360596, 0.015964413061738014, -0.3492976427078247, -0.09237217158079147, 0.3480904698371887, -0.11244325339794159, -0.09648624062538147, 0.2568075954914093, -0.11971443891525269, -0.25676122307777405, -0.3700549304485321, 0.15372878313064575, -0.13264238834381104], [-0.14026081562042236, 0.22020018100738525, 0.029862552881240845, -0.22176644206047058, 0.1588236689567566, 0.16373354196548462, 0.00801706314086914, 0.35681694746017456, -0.3694053292274475, 0.01896044611930847, -0.009661734104156494, -0.0037381649017333984, 0.3603113889694214, -0.08443480730056763, -0.3782135546207428, 0.352191686630249, 0.18420511484146118, -0.12296828627586365, 0.15298867225646973, 0.16180360317230225], [-0.3263087272644043, 0.2697840929031372, 0.29733186960220337, -0.1182989776134491, 0.1449798345565796, 0.23686766624450684, -0.12269818782806396, 0.33330434560775757, -0.30004674196243286, -0.314315527677536, -0.08387818932533264, 0.04984945058822632, 0.041658878326416016, 0.3272067904472351, -0.001386195421218872, 0.34868377447128296, 0.0341109037399292, 0.23572516441345215, -0.056446075439453125, -0.011710435152053833], [-0.25229567289352417, -0.03876221179962158, 0.241035595536232, 0.3453133702278137, 0.2882477045059204, -0.15836426615715027, 0.2659449577331543, -0.02757776714861393, 0.3108627498149872, -0.17458133399486542, -0.12297648191452026, 0.13741710782051086, 0.39972594380378723, 0.02891826257109642, 0.38328319787979126, -0.2255944460630417, 0.03172425925731659, 0.27651095390319824, 0.02893713116645813, 0.13837051391601562]], [0.0, 0.0, 0.14574986696243286, -0.02936594933271408, 0.11830741912126541, 0.0, 0.0, 0.10158812999725342, 0.12141156941652298, 0.0, 0.1371510624885559, 0.11638107895851135, -0.10998650640249252, -0.04609476029872894, 0.12713967263698578, 0.0, 0.13379883766174316, 0.0, 0.0, 0.0]]}, {"class_name": "Dense", "units": 1, "activation": "linear", "weights": [[[0.48724979162216187], [0.09442073106765747], [0.13183191418647766], [-0.33810731768608093], [0.2305690050125122], [0.1902506947517395], [0.013051390647888184], [-1.7495547533035278], [0.2744191586971283], [0.08670371770858765], [0.6999861001968384], [0.551698625087738], [-0.9082721471786499], [-0.34587717056274414], [0.21292997896671295], [-0.2776961624622345], [0.2012401968240738], [-0.5117722749710083], [0.06853419542312622], [0.37308037281036377]], [0.10425154119729996]]}]}
